tree
version=v4
num_class=1
num_tree_per_iteration=1
label_index=0
max_feature_idx=5
objective=lambdarank
feature_names=Column_0 Column_1 Column_2 Column_3 Column_4 Column_5
feature_infos=[0:1] [0:1] [0:1] [0:1] [0:4] [0:4]
tree_sizes=1189 1185 1194 1190 1195

Tree=0
num_leaves=10
num_cat=0
split_feature=2 0 1 4 4 3 1 4 3
split_gain=15.0439 2.04095 2.35315 0.338899 0.200667 0.221885 0.186806 0.0390124 0.0209264
threshold=1.0000000180025095e-35 1.0000000180025095e-35 1.0000000180025095e-35 1.5000000000000002 3.5000000000000004 1.0000000180025095e-35 1.0000000180025095e-35 2.5000000000000004 1.0000000180025095e-35
decision_type=2 2 2 2 2 2 2 2 2
left_child=1 6 3 -3 -5 -6 -1 -8 -4
right_child=-2 2 8 4 5 -7 7 -9 -10
leaf_value=-0.19620591439670887 0.19776188899331718 -0.02234345961072998 0.19999999999999934 -0.17946487132451761 -0.12641756164834833 0.088311512234571288 -0.10108790325913374 -0.15073836657169212 0.14885721475525415
leaf_weight=1.6395089263096454 2.3869553282856941 0.34929795749485515 0.27102938294410694 0.48358429595828056 0.17726466432213783 0.066054277122020721 0.21674942038953293 0.58640232495963573 0.11351589858531952
leaf_count=44 8 4 1 7 2 1 4 8 1
internal_value=-3.36086e-09 -0.120933 -0.0274267 -0.103296 -0.142196 -0.0681246 -0.17685 -0.137339 0.184903
internal_weight=6.29036 3.90341 1.46075 1.0762 0.726903 0.243319 2.44266 0.803152 0.384545
internal_count=80 72 16 14 10 3 56 12 2
is_linear=0
shrinkage=0.1


Tree=1
num_leaves=10
num_cat=0
split_feature=1 0 0 3 4 3 5 4 3
split_gain=34.2243 5.87416 0.898488 1.10194 0.224904 0.180553 0.123018 0.115196 0.103494
threshold=1.0000000180025095e-35 1.0000000180025095e-35 1.0000000180025095e-35 1.0000000180025095e-35 1.5000000000000002 1.0000000180025095e-35 2.5000000000000004 2.5000000000000004 1.0000000180025095e-35
decision_type=2 2 2 2 2 2 2 2 2
left_child=2 5 -1 -4 6 -2 -5 -7 -3
right_child=1 8 3 4 -6 7 -8 -9 -10
leaf_value=-0.16576941745148188 -0.066510996091059801 0.17672411429639137 -0.16223253317035966 -0.015391484035820384 -0.073151407725601802 -0.025320835116181446 0.075732595294801364 0.058661137301680148 0.15384939469201847
leaf_weight=6.3594376631081104 0.94154746830463387 3.9198440909385681 1.0520161278545856 0.36378203332424164 0.42150084674358368 0.59805439412593842 0.24993878602981567 0.22469471395015717 3.9924122989177704
leaf_count=45 7 4 8 2 3 4 1 1 5
internal_value=5.88396e-10 0.12839 -0.147085 -0.0901552 -0.0169085 -0.036607 0.0217189 -0.00238516 0.165182
internal_weight=18.1232 9.67655 8.44668 2.08724 1.03522 1.7643 0.613721 0.822749 7.91226
internal_count=80 21 59 14 6 12 3 5 9
is_linear=0
shrinkage=0.1


Tree=2
num_leaves=10
num_cat=0
split_feature=2 4 1 3 0 5 1 4 1
split_gain=18.3804 2.23015 2.18133 0.623444 0.558173 0.364013 0.271076 0.204598 0.17142
threshold=1.0000000180025095e-35 3.5000000000000004 1.0000000180025095e-35 1.0000000180025095e-35 1.0000000180025095e-35 1.0000000180025095e-35 1.0000000180025095e-35 1.0000000180025095e-35 1.0000000180025095e-35
decision_type=2 2 2 2 2 2 2 2 2
left_child=1 3 4 6 -3 -2 -1 -5 -9
right_child=5 2 -4 7 -6 -7 -8 8 -10
leaf_value=-0.15355392216200814 0.084160549117353489 -0.15570603336452646 0.1543888915533147 -0.030662408103439644 0.00030719488424010366 0.15462944597909842 -0.085746973536559745 -0.11153981965977298 -0.060216891183109404
leaf_weight=3.0682569593191134 0.87062798440456468 0.48660428822040536 0.67608737945556641 0.63586477935314212 0.43372220546007156 4.6381272077560425 0.72981675714254368 1.8413156792521477 1.0065334588289261
leaf_count=28 2 5 1 5 3 6 7 17 6
internal_value=1.12475e-09 -0.0890342 0.0180069 -0.112501 -0.0821817 0.143492 -0.140525 -0.0819492 -0.0934004
internal_weight=14.387 8.8782 1.59641 7.28179 0.920326 5.50876 3.79807 3.48371 2.84785
internal_count=80 72 9 63 8 8 35 28 23
is_linear=0
shrinkage=0.1


Tree=3
num_leaves=10
num_cat=0
split_feature=1 0 0 3 3 2 3 4 4
split_gain=14.4845 3.67722 0.546405 0.338523 0.0579607 0.0412144 0.184433 0.0331982 0.103163
threshold=1.0000000180025095e-35 1.0000000180025095e-35 1.0000000180025095e-35 1.0000000180025095e-35 1.0000000180025095e-35 1.0000000180025095e-35 1.0000000180025095e-35 1.5000000000000002 3.5000000000000004
decision_type=2 2 2 2 2 2 2 2 2
left_child=2 4 -1 -4 -2 6 -3 -5 -9
right_child=1 5 3 7 -6 -7 -8 8 -10
leaf_value=-0.13850298633419289 -0.07419521904151391 0.1451493439683168 -0.11728995428931491 -0.0023893905777363483 -0.030842005525095497 0.14074273196014225 0.040581497909036188 -0.093680485002484742 0.01319309992364083
leaf_weight=4.0276572182774544 0.67156635224819161 0.62085324525833119 0.71354661881923653 0.41177942603826523 0.57023667544126511 4.4502602815628052 0.2315884530544281 0.19380258768796921 0.16915243864059448
leaf_count=45 7 1 8 3 5 7 1 2 1
internal_value=1.66026e-10 0.10061 -0.119371 -0.0675945 -0.0542874 0.136884 0.116741 -0.021824 -0.0438729
internal_weight=12.0604 6.54451 5.51594 1.48828 1.2418 5.3027 0.852442 0.774734 0.362955
internal_count=80 21 59 14 12 9 2 6 3
is_linear=0
shrinkage=0.1


Tree=4
num_leaves=10
num_cat=0
split_feature=1 0 0 3 4 4 3 2 3
split_gain=10.1395 2.77246 0.699583 0.348781 0.199206 0.0642477 0.0406387 0.0371509 0.125327
threshold=1.0000000180025095e-35 1.0000000180025095e-35 1.0000000180025095e-35 1.0000000180025095e-35 3.5000000000000004 1.5000000000000002 1.0000000180025095e-35 1.0000000180025095e-35 1.0000000180025095e-35
decision_type=2 2 2 2 2 2 2 2 2
left_child=2 6 -1 -4 5 -5 -2 8 -3
right_child=1 7 3 4 -6 -7 -8 -9 -10
leaf_value=-0.13000302374026132 -0.066925488342707493 0.13501547235268613 -0.10037519769705619 -0.0077337330830722396 0.085069439194495722 -0.082388542581140797 -0.02843163632776078 0.13225376832550101 0.041943963730754201
leaf_weight=3.4456351213157177 0.59028024226427056 0.47951906919479359 0.62726946175098397 0.36991947144269943 0.20400600135326385 0.1674627959728241 0.51226527988910675 3.7113854289054871 0.20719577372074127
leaf_count=45 7 1 8 3 1 2 5 7 1
internal_value=1.92146e-10 0.0927543 -0.105978 -0.0454938 0.000939861 -0.0309982 -0.0490405 0.1283 0.106934
internal_weight=10.3149 5.50065 4.81429 1.36866 0.741388 0.537382 1.10255 4.3981 0.686715
internal_count=80 21 59 14 6 5 12 9 2
is_linear=0
shrinkage=0.1


end of trees

feature_importances:
Column_3=12
Column_4=11
Column_0=8
Column_1=8
Column_2=4
Column_5=2

parameters:
[boosting: gbdt]
[objective: lambdarank]
[metric: ndcg]
[tree_learner: serial]
[device_type: cpu]
[data_sample_strategy: bagging]
[data: ]
[valid: ]
[num_iterations: 5]
[learning_rate: 0.1]
[num_leaves: 10]
[num_threads: 0]
[seed: 42]
[deterministic: 0]
[force_col_wise: 0]
[force_row_wise: 1]
[histogram_pool_size: -1]
[max_depth: -1]
[min_data_in_leaf: 1]
[min_sum_hessian_in_leaf: 0.001]
[bagging_fraction: 1]
[pos_bagging_fraction: 1]
[neg_bagging_fraction: 1]
[bagging_freq: 0]
[bagging_seed: 400]
[bagging_by_query: 0]
[feature_fraction: 1]
[feature_fraction_bynode: 1]
[feature_fraction_seed: 30056]
[extra_trees: 0]
[extra_seed: 12879]
[early_stopping_round: 0]
[early_stopping_min_delta: 0]
[first_metric_only: 0]
[max_delta_step: 0]
[lambda_l1: 0]
[lambda_l2: 0]
[linear_lambda: 0]
[min_gain_to_split: 0]
[drop_rate: 0.1]
[max_drop: 50]
[skip_drop: 0.5]
[xgboost_dart_mode: 0]
[uniform_drop: 0]
[drop_seed: 17869]
[top_rate: 0.2]
[other_rate: 0.1]
[min_data_per_group: 100]
[max_cat_threshold: 32]
[cat_l2: 10]
[cat_smooth: 10]
[max_cat_to_onehot: 4]
[top_k: 20]
[monotone_constraints: ]
[monotone_constraints_method: basic]
[monotone_penalty: 0]
[feature_contri: ]
[forcedsplits_filename: ]
[refit_decay_rate: 0.9]
[cegb_tradeoff: 1]
[cegb_penalty_split: 0]
[cegb_penalty_feature_lazy: ]
[cegb_penalty_feature_coupled: ]
[path_smooth: 0]
[interaction_constraints: ]
[verbosity: 3]
[saved_feature_importance_type: 0]
[use_quantized_grad: 0]
[num_grad_quant_bins: 4]
[quant_train_renew_leaf: 0]
[stochastic_rounding: 1]
[linear_tree: 0]
[max_bin: 255]
[max_bin_by_feature: ]
[min_data_in_bin: 3]
[bin_construct_sample_cnt: 200000]
[data_random_seed: 175]
[is_enable_sparse: 1]
[enable_bundle: 1]
[use_missing: 1]
[zero_as_missing: 0]
[feature_pre_filter: 1]
[pre_partition: 0]
[two_round: 0]
[header: 0]
[label_column: ]
[weight_column: ]
[group_column: ]
[ignore_column: ]
[categorical_feature: ]
[forcedbins_filename: ]
[precise_float_parser: 0]
[parser_config_file: ]
[objective_seed: 16083]
[num_class: 1]
[is_unbalance: 0]
[scale_pos_weight: 1]
[sigmoid: 1]
[boost_from_average: 1]
[reg_sqrt: 0]
[alpha: 0.9]
[fair_c: 1]
[poisson_max_delta_step: 0.7]
[tweedie_variance_power: 1.5]
[lambdarank_truncation_level: 30]
[lambdarank_norm: 1]
[label_gain: ]
[lambdarank_position_bias_regularization: 0]
[eval_at: 1,3]
[multi_error_top_k: 1]
[auc_mu_weights: ]
[num_machines: 1]
[local_listen_port: 12400]
[time_out: 120]
[machine_list_filename: ]
[machines: ]
[gpu_platform_id: -1]
[gpu_device_id: -1]
[gpu_use_dp: 0]
[num_gpu: 1]

end of parameters

pandas_categorical:null
